87 16
Israelites -0.12594663 0.10324472 0.30283728 0.4156371 -0.1800334 -0.060950812 0.72096336 0.17112657 -0.06075327 -0.09610716 0.1400475 0.048915286 -0.08771754 -0.10908488 -0.33943734 -0.07108179
YHWH -0.08770162 0.096542105 0.1642669 0.22634241 -0.043141264 0.028775277 0.6144045 0.09616374 0.025103213 -0.07872863 0.07055083 0.1032531 -0.1046196 -0.16029866 -0.30532116 -0.052972153
sojourner -0.0105927875 0.03827715 0.16669707 0.21242581 -0.020237174 -0.04967743 0.4368273 0.030332817 -0.0889445 -0.007753294 -0.011109395 0.015105347 -0.044924293 -0.11057681 -0.24820077 0.031646922
2MSg -0.051069975 0.15541817 0.1549084 0.28760087 -0.1256808 0.0044028633 0.5537895 0.024251921 0.020439167 -0.10416283 0.030031148 0.13244565 -0.038340982 -0.12554646 -0.26480156 -0.10175081
an_Israelite -0.08971448 0.09248871 0.1805032 0.2831101 -0.0932392 0.007853605 0.49384505 0.12541045 -0.0399841 -0.1045869 0.072641626 0.0397499 0.010592859 -0.10541455 -0.22789006 -0.09852455
brother -0.08408843 0.11322098 0.24976975 0.32415903 -0.1238854 0.0113776205 0.546755 0.025235323 -0.039477013 0.00043962663 0.069142096 0.049190566 -0.0069528203 -0.117529295 -0.15720291 0.0072555016
land -0.13803497 0.013437337 0.16419765 0.2417503 -0.12247813 0.018519815 0.45030326 0.11353368 0.054880988 -0.07708545 0.068828896 0.09473132 -0.065441154 -0.13774222 -0.18405123 -0.08885838
Aaron -0.1233787 0.1218625 0.20265356 0.28582618 -0.01638774 0.04804902 0.4137814 0.059727468 0.0039214822 -0.07599619 0.11602549 -0.032775372 0.015052117 -0.07806205 -0.23820096 0.001934417
foreign_nations -0.07120396 0.101532854 0.20572144 0.1378371 -0.0626178 -0.045828253 0.3801749 0.07521743 0.04908169 0.0093909055 0.11379652 0.111089826 0.01778588 -0.13724604 -0.21744816 -0.027548058
handmaid -0.06165895 0.093308516 0.13888659 0.10427465 -0.0260109 0.010030332 0.28189987 -0.040212315 -0.0105482945 0.0012413486 0.018670445 0.08875565 0.05483802 -0.0002073492 -0.10641989 0.04342614
widowed/expelled/defiled_woman -0.102957204 0.059081905 0.044217683 0.07262468 -0.007945558 0.03696685 0.2630299 -0.017095177 0.04913043 0.033076093 -0.007813961 -0.055953663 0.029374233 0.0087769665 -0.093041055 -0.065644525
Aaron's_sons -0.10668549 0.031213207 0.1624755 0.14008553 -0.11728664 0.020120772 0.3395097 0.004786814 -0.0019021208 -0.05082311 0.03940548 -0.031715658 0.00033892423 -0.09813331 -0.13571405 -0.038572975
house -0.01977766 -0.02532674 0.045444764 0.10378525 0.0081488835 -0.014098414 0.09373929 0.053541698 -0.0025117954 0.000471987 -0.02752341 0.008294922 0.047320753 0.015895113 -0.0963076 -0.005161149
idols -0.10227426 0.08701718 0.081243016 0.1291975 0.017171368 0.0014953648 0.32957476 0.0014836289 0.022103287 0.040250313 -0.03510598 -0.011248731 -0.070049495 -0.09284962 -0.1493434 -0.076636955
blasphemer -0.0021788334 0.01743406 0.18935362 0.19948258 -0.09055579 0.019157449 0.35437444 -0.00042049022 -0.05718638 -0.04955326 -0.016472522 0.007888897 -0.021745361 -0.041040555 -0.13076846 -0.022325793
woman_in_menstruation -0.059301745 0.032051515 0.04627681 0.105783395 0.0065141036 0.024741214 0.13555008 0.0007559926 -0.03628582 -0.017569356 0.024076823 -0.0038525893 -0.05800085 -0.085479155 -0.11792562 -0.04923598
remnants -0.070444256 0.028461348 0.09033657 0.13684079 -0.024068499 -0.03208726 0.4100894 0.0725311 -0.050143912 0.03389311 0.10416261 0.08764507 -0.0836222 -0.048432488 -0.13397434 0.005445944
slave 0.0017808932 0.033449665 0.036755007 0.12082365 0.04172127 0.022308331 0.111229464 0.019810002 0.0058785067 -0.06475908 -0.03210842 0.007633327 -0.0005980027 -0.06740675 -0.08708966 -0.054892335
Moses 0.0017443295 0.043805405 0.098153725 0.19122037 0.01539172 -0.03447399 0.34227008 0.0736293 0.024868768 -0.02649602 0.08371123 -0.028258868 -0.07602712 -0.0043225293 -0.12427549 -0.028396774
property 0.012309945 -0.0010515053 0.07077498 0.112954974 0.012615681 -0.048454203 0.1827929 0.04215736 0.016391996 -0.05200783 0.06940685 -0.0026195566 0.04188694 -0.06461793 -0.10310089 0.04289946
clan -0.00890215 0.014631357 0.12514254 0.14152096 -0.09003485 0.013122937 0.17908151 0.036870867 0.0024370316 -0.014046665 0.022000829 -0.013973092 -0.06308173 -0.04882207 -0.035579354 0.05730474
woman_and_her_mother 0.043021712 -0.021750199 -0.024517048 0.11016423 0.00824324 0.029923039 0.13078932 -0.0012946386 0.039249986 0.0114031825 0.026143927 -0.012073188 -0.029568713 -0.032336753 -0.013676569 -0.007030331
outside_camp -0.08022735 -0.04831864 -0.0028326632 0.052292038 -0.0059812088 0.059907258 0.13116416 -0.010774367 -0.004063919 0.018018942 0.058658067 -0.0014259262 0.019247495 -0.054452464 -0.04806507 0.041012637
tent_of_meeting -0.03519677 -0.039886944 0.0822595 0.03293514 -0.022042407 0.06050572 0.09837571 -0.012282464 -0.036073215 0.033962715 -0.017933195 0.02633674 -0.042200115 0.010400497 -0.027222328 0.008163348
human_being -0.06052931 0.028049834 0.17221966 0.1709038 -0.04257805 -0.07761661 0.21164177 0.03224177 -0.009975812 -0.038182203 0.10406815 0.022546265 0.022667065 -0.1225821 -0.12905464 -0.052619107
sister -0.10672465 0.065547 0.074983865 0.14735422 -0.027782284 0.030996861 0.31173825 0.062010147 -0.047680017 0.015425013 -0.0091826515 0.060709376 -0.083458535 -0.0627125 -0.17708005 -0.053640503
mother -0.033631995 0.04837711 0.064751394 0.0057974434 -0.005738363 -0.05439778 0.12231987 0.068894744 -0.022858988 -0.00024712077 0.00990704 0.04212356 -0.061677266 -0.0147238225 0.008360996 0.0070552267
daughter -0.045736447 -0.014062486 0.170561 0.09546586 -0.07014502 0.018351452 0.26693374 0.041184098 0.00947643 -0.07844111 -0.035231043 0.102301344 0.028053053 -0.11409532 -0.10624858 -0.032840796
corpse 0.01882575 -0.035153188 0.053693127 0.059919447 0.05559298 -0.030688236 0.05762974 -0.03533872 -0.06119768 -0.0626955 0.0044284374 -0.03326704 0.027316801 -0.05617428 -0.014626749 0.00091408746
father -0.03206894 0.0050197938 0.08690639 0.08864678 -0.037104633 0.056812778 0.027223894 0.048028268 -0.022974283 0.015526261 0.025426768 0.05053338 -0.019326136 0.040295076 0.017149523 -0.06690666
camp -0.059635956 -0.042195514 0.043416176 0.01506757 -0.05325402 -0.054312658 0.110420704 0.022241233 -0.06377563 -0.040802144 0.027081216 -0.02708912 0.030719114 -0.038403165 -0.009865532 -0.056621924
woman 0.021053972 0.04797375 0.04984513 0.070213296 -0.07564072 0.012863952 0.09770698 -0.047604013 -0.058219884 -0.022684366 0.038014006 0.04252365 -0.0425554 -0.07096288 -0.08319053 -0.028626446
aunt-in-law -0.054752566 -0.05139117 0.0007913347 -0.028455382 -0.044686183 -0.03534671 0.03173667 -0.0027200668 -0.05980631 -0.0082580205 0.05433736 0.054282222 -0.050471846 -0.03490776 -0.004114102 -0.064632095
fellow's_wife -0.039476488 0.08831342 0.15397342 0.07824707 -0.072058655 -0.051770594 0.25850946 0.08526102 0.039458584 0.0074249627 0.06515593 0.014016168 0.056273986 -0.109517716 -0.17021425 -0.045865163
sister_of_woman -0.01643298 -0.007633574 0.023929672 0.07812678 -0.016722482 -0.009994098 0.07898911 -0.046110198 0.051573135 0.046290588 -0.05271804 0.026210243 0.062122274 -0.06510603 -0.07466082 -0.05871012
man/woman 0.03967337 0.0073579624 0.08654225 -0.010360131 0.011673042 0.017148647 0.080440275 0.027896868 -0.049549997 -0.067752585 0.021783495 0.04216419 0.04294217 0.019946238 -0.039442148 0.04532017
altar -0.06813713 0.031448573 0.026264897 0.052605603 0.040031962 -0.042519387 0.09067104 -0.052183867 -0.0058402335 -0.059412107 -0.02408646 0.064066865 -0.015154502 0.003583074 0.032084428 0.05350118
custody -0.06323151 -0.007221456 0.09412529 0.07199718 -0.022065707 -0.057931032 0.09183474 -0.035095178 0.04910273 -0.03628433 0.0006095857 0.010014829 -0.0061748405 -0.0065631056 0.010869116 -0.0039257496
lamp_stand -0.03604468 0.004672789 0.06930597 0.05098887 -0.012280845 0.05584185 0.042441897 0.0053731925 0.05803775 0.034330003 0.02254842 -0.04936293 0.0042655184 -0.03532807 0.024472853 0.0029313483
sons_of_sojourners -0.030560499 0.052290607 0.07009345 0.069600016 -0.033257622 -0.018318124 0.2753484 0.09783207 -0.0075239516 0.0055198916 -0.00451963 0.0475065 -0.07355537 -0.113916434 -0.14317064 -0.08007897
offspring 0.035808712 -0.027281694 0.07437829 -0.015949417 0.01273325 0.05816344 0.0061795954 -0.053453106 -0.032699488 -0.021840833 0.0032904414 -0.04908292 -0.05905458 0.0023471839 -0.078399755 -0.061027646
virgin -0.026896277 -0.042965796 -0.017319292 -0.019464241 -0.008486089 -0.030465106 0.09962838 0.017697936 -0.021438025 0.031609885 -0.026488999 -0.025149478 -0.049528193 -0.043331034 -0.038277347 0.037724618
holy_place -0.028623415 0.03855763 0.0678191 -0.018933877 0.022192208 0.037025787 0.03458857 0.047469422 0.038722344 -0.045916226 -0.035081614 0.022349345 -0.010529169 -0.0513289 0.03512446 -0.03636806
daughter-in-law -0.045596357 0.0035168675 -0.006981042 0.014805955 -0.02543497 -0.0025425479 0.019738244 0.008808577 0.049841568 -0.03751408 -0.008228293 0.03814618 0.04874468 -0.033716895 0.04457192 0.04941609
elderly -0.03906401 0.015564068 0.060917296 0.013327204 -0.048634626 -0.040301327 0.07018974 0.0030400318 0.028876234 -0.024465464 0.005050328 0.026712894 0.030101944 -0.020550024 -0.075834624 -0.06766438
entrance_tent_of_meeting -0.008305322 0.049553975 0.026345972 -0.03225445 -0.05752445 0.039735228 0.021444725 0.04692099 -0.044407196 0.049810514 -0.036152028 0.02502805 -0.011856478 -0.052713674 -0.04209524 -0.012258625
father's_wife -0.042651292 -0.0003648921 -0.03386991 0.03631801 0.05074814 -0.015187764 0.031744413 0.028507542 0.049976442 -0.03989413 -0.039975636 -0.014547013 0.049736377 -0.004164013 -0.07229143 -0.013039077
town 0.053764023 -0.041279208 -0.017600494 0.075259134 -0.05974159 0.023446579 0.04082609 0.0471578 0.053049553 -0.021176904 -0.018879611 0.060213767 0.0112731485 0.030129194 -0.0760062 0.058214962
children -0.016451657 -0.030594535 0.037410095 0.02269514 0.020370072 -0.014864063 0.018931217 0.023348525 0.049207106 -0.03731923 0.02189646 -0.047112178 -0.04609975 -0.013753521 -0.07736282 0.012067107
male 0.0028560904 -0.008918129 0.042276807 0.07931928 0.046458725 -0.013018887 0.046452746 -0.018952703 -0.054199185 0.036252536 -0.009475235 0.00030860837 -0.014137056 -0.03607233 0.010081079 -0.030202467
village -0.06628734 0.06327633 0.04213904 0.080106996 0.032841947 0.017869323 0.10194357 -0.021046752 -0.04349576 0.022912765 0.028296849 -0.032837104 0.05817331 -0.030464498 0.041091338 0.0018014209
hut -0.0445294 -0.008356715 -0.03621482 -0.0058571934 0.0023161245 0.059179313 0.08389423 -0.03651936 0.021051321 0.011774201 -0.01219 -0.055459198 0.0032235552 -0.056523275 0.029190194 -0.036417767
group_of_people -0.0057369857 0.103266105 0.094780505 0.14932323 -0.05085763 0.038969275 0.25972328 -0.021549331 -0.02976504 0.0032106796 0.025838036 0.019485667 -0.024442403 -0.068948485 -0.10704289 0.0077634696
relative -0.037207365 -0.01683132 0.022049839 0.027987767 -0.00952366 -0.02915096 0.08297805 -0.005535624 0.012922131 -0.003073817 0.04282912 -0.033366997 -0.045817554 -0.041306593 0.032053553 -0.016393365
ground -0.06266756 0.001588432 -0.016692996 0.052910946 -0.0643795 0.018102555 -0.029789763 0.012317768 0.03612548 0.04292274 -0.04539659 -0.037171744 -0.045105625 -0.053815458 -0.07191688 -0.015722683
golden_table -0.010847591 -0.04107843 0.054367002 0.023314057 0.03176048 0.008651282 0.03643763 -0.041029334 -0.015366388 0.023626477 -0.027037209 0.008876413 0.014887571 -0.016877359 0.04917956 0.050737534
kinsmen -0.022090783 0.08285309 0.11978443 0.071025625 -0.06667384 -0.045213312 0.1543074 0.08585726 -0.028673328 -0.06836786 -0.007220979 0.05425496 -0.03885007 -0.074321374 -0.08724974 -0.033663288
curtain -0.014220597 0.009920696 -0.009679928 0.06393197 0.022287205 -0.06414181 0.057684902 -0.03943006 0.0049363333 0.025486607 -0.02798026 -0.011774128 0.05055266 -0.03271862 -0.05601451 0.056021627
incense_altar -0.016104762 -0.026589146 0.06275382 0.03701629 0.024447512 0.057773482 -0.029967565 0.036834262 0.012237675 0.023328185 0.014103921 0.030726198 0.025501126 0.032229275 -0.030161994 -0.029764762
mount_Sinai -0.005807099 0.019482063 -0.010393525 0.04966064 0.022617696 0.049692903 0.038257506 0.053415027 -0.008536947 0.04767217 0.026013784 -0.048714917 -0.025307927 -0.020183252 0.01997306 -0.0055581843
Canaan -0.020483786 0.052397765 0.068095304 0.0012987758 -0.035958424 -0.03011675 -0.0053977296 -0.05566488 0.007947329 -0.029390285 0.020325534 0.03878106 -0.028096927 -0.06630238 -0.0014606044 -0.041954763
field 0.012634351 -0.021984166 0.048802376 0.011460426 0.0198012 -0.017477985 0.0025586805 0.05071787 0.009091318 -0.038108442 -0.04739035 0.008362786 0.038836986 0.0319643 -0.061391212 0.05140157
high_place 0.024078114 0.047921002 0.064288996 -0.04255394 -0.05765377 0.03589801 0.06608375 0.02331606 0.04433536 -0.010529004 0.05114266 -0.05815449 -0.050776917 -0.04369349 -0.02907198 0.03106537
Israelites'_sanctuaries -0.026640985 -0.04904572 0.061083153 -0.015386114 0.05202246 -0.030794675 0.043829586 0.033704072 0.014997595 -0.018990561 0.020874301 -0.048616666 -0.01974279 -0.021473415 0.037548635 -0.021736294
heavens -0.045888796 0.031578664 0.009089434 -0.008722136 0.03897669 0.024415493 0.002228183 0.008720554 0.05611999 0.04501925 0.04306336 0.03162213 0.014134807 -0.017626598 -0.052905835 -0.0026539697
purchaser -0.050144725 0.030901743 0.03337152 0.15505372 -0.080586925 -0.05533814 0.17555332 0.023229726 -0.06448427 -0.014422945 -0.014930902 0.009612069 -0.06393806 -0.03145405 -0.06663564 -0.016148627
Egypt -0.07338032 0.022536237 0.13638346 0.14552625 -0.09292645 -0.02438056 0.23779675 0.04979719 -0.068366714 0.0048049027 -0.035372786 -0.03296719 -0.00026864826 -0.067040555 -0.073203884 0.04178971
deaf -0.023394696 0.059400156 0.013515323 0.06460317 0.034634084 -0.05716468 -0.014296274 0.04147421 0.035153206 0.053504124 0.04412225 0.05150227 -0.061647497 0.025027806 -0.034544345 0.021233184
2MPl 0.035310667 0.030230032 0.055551536 0.018338472 -0.010127809 0.03593388 -0.015903752 0.0035384747 0.05919138 -0.03673108 0.026939811 -0.049129758 0.059708923 0.045839876 -0.001392751 0.03167985
aunt 0.0076831304 -0.039228942 -0.0055226935 0.043895025 -0.02984483 -0.025155485 0.03729568 0.017885005 -0.011014931 -0.018387457 0.038716502 -0.035500508 -0.019750165 -0.042151246 -0.029240282 -0.05405886
rich -0.028049646 -0.053256292 0.009039671 -0.05378275 -0.06193607 -0.05119817 -0.04168958 0.041731913 0.023845356 0.0021921727 -0.018344833 -0.046198074 0.003752355 0.0029367006 0.00086466025 0.005165671
granddaughter_of_woman 0.004392459 -0.00021048279 -0.049242254 -0.035925843 -0.05302757 -0.008380384 0.01294386 0.046582635 -0.011837754 -0.015120018 0.059427954 0.0007246778 -0.014506855 0.05313519 0.015689481 -0.033954006
land_of_enemies -0.0004991437 0.07669299 0.05102156 0.12435221 -0.03469063 0.034449965 0.24943726 0.027953401 0.01077972 -0.012727065 0.035946704 0.015116622 -0.070006825 -0.011806822 -0.060428802 0.03533636
woman_and_her_daughter -0.055312116 0.017887402 -0.018132899 0.0637929 0.017125769 0.028972063 0.022443276 0.041778896 -0.03510354 0.04881468 -0.013603614 -0.026928661 -0.012373436 0.058598235 -0.046515234 -0.014943495
vineyard 0.04256361 0.0012728646 -0.035553463 -0.036953915 0.054784406 0.040218204 0.03555071 -0.020302331 -0.057615772 0.022932239 0.045784965 -0.034046423 -0.0484843 -0.020422744 -0.033869267 -0.015083973
hireling -0.013141493 -0.031012451 0.06313419 -0.054549817 0.026402848 0.033665728 -0.0018300279 0.056444358 0.06224168 -0.03489021 -0.037063308 -0.040760655 -0.049124423 -0.021195887 -0.038452633 -0.053204276
blind 0.0048223105 0.018872542 0.040332656 -0.016123809 -0.027882237 0.007821742 0.0029204795 0.05071338 0.0011529606 0.045179386 -0.051620997 0.0527367 -0.011766021 0.05424815 -0.047873877 0.011135257
granddaughter 0.00660304 0.0002875328 -0.031895332 -0.05779811 -0.045401357 -0.049694836 0.011960797 0.0029904172 -0.01133211 0.044501036 -0.015473075 -0.008420683 -0.055628523 -0.062033832 0.055933736 -0.035962112
brother's_uncle -0.065707624 0.078602955 0.13382493 0.058912594 -0.029946867 -0.038693838 0.19573769 -0.007155414 -0.035606116 -0.004549917 0.08262015 0.05917978 -0.08945971 -0.08783898 -0.03624772 0.010824678
husband -0.061162602 0.031136636 0.14107022 0.0670289 -0.10173266 0.009196585 0.1922628 0.0706051 0.023809863 -0.06239105 0.013371156 0.01088384 0.025955858 -0.09901856 -0.12336415 -0.0042038984
poor -0.05380187 0.036375977 -0.0026113242 0.06231986 -0.033399858 -0.0030383691 0.048479833 -0.025424577 -0.031349376 0.009937942 0.016566835 -0.016030997 0.040297054 -0.047874704 0.021209754 0.0030623153
brother's_brother 0.027970612 0.08268458 0.13815585 0.15615292 -0.097917974 0.05848765 0.14236622 0.0041895895 -0.04737505 -0.053340264 -0.020710643 -0.034809615 -0.053725958 -0.05600933 -0.11752434 0.036907658
son_of_brother -0.09922856 0.0005911326 0.1516991 0.14410366 0.01200456 0.026421046 0.19854368 -0.016792744 0.047690503 -0.0066919103 0.075325154 0.06561343 0.053089056 0.005358232 -0.16004871 -0.07202942
man -0.012780984 0.079884 0.114365086 0.11867969 0.033257544 -0.041693106 0.19484602 -0.012002362 -0.077840656 0.057847116 0.027827108 -0.002929407 -0.028692372 -0.067089185 -0.024347326 0.02322571
witnesses -0.057055224 -0.019036945 0.06628087 0.11022992 0.0029002547 -0.02126515 0.2166122 0.034766696 -0.05750416 -0.013833285 0.016794087 0.035684515 0.018027488 -0.05785355 -0.114307135 0.036361936
no-one -0.0028523735 0.07696584 0.10872548 0.16376753 0.015218129 -0.008525603 0.25182983 0.05887976 0.024545707 -0.024794156 0.0032248537 -0.020139521 -0.07574544 -0.02156035 -0.028647002 0.045729965
lay-person -0.060069848 0.086686134 0.13872838 0.10361663 -0.018783532 -0.04718254 0.3112563 0.07293423 0.015553199 0.0023766092 0.09443201 0.07080439 -0.019014345 -0.1151109 -0.06712147 0.032349862
