41 16
YHWH 0.06854395 0.112328276 0.5427327 0.9552315 -0.99084544 -0.5678122 1.0663728 0.26887998 -0.23987564 -0.41414216 1.3171517 -0.3070594 -0.70281804 0.35283658 -1.0353177 -0.08165212
Israelites 0.31178772 0.0035679527 -0.4680584 -0.09198079 0.39241824 0.36871314 0.9046023 -0.5062282 0.3822765 -0.7568753 0.85280836 0.3909526 -0.64033484 0.2521441 -0.9695488 -0.09382163
land 0.5241143 -0.4982971 -0.25867534 0.09906316 0.3562926 -0.9524382 0.8900589 0.26272774 -0.7313913 0.3387274 0.25086835 -0.12607409 -0.032361474 -0.67002946 -1.6907209 -0.09094514
an_Israelite 0.12885256 -0.00857801 -0.020769386 0.069940776 -0.31619352 0.39703128 1.5532823 -0.42744938 -0.36000416 0.057592023 -1.1401951 0.8104269 -0.24911293 0.10295026 -0.42315236 -0.34883425
Aaron -0.13196273 0.3670011 0.0646086 0.30549264 -0.06534301 -0.48029703 1.3006157 1.0972449 0.04872444 -0.25819606 0.48559237 0.11991933 0.20817849 -0.3046929 -1.2184489 -1.3813983
house 0.18247668 -0.6842822 0.45096704 1.4060463 -0.16727647 0.5591111 2.3962393 -0.6920606 -1.1654617 0.280891 -0.7845711 0.49768054 0.39477655 -0.30311057 0.84764665 -0.38145193
tent_of_meeting -0.122658305 -0.5448184 0.20283328 0.26724494 -0.10349608 0.14034541 0.86835134 0.81061655 0.058517333 0.20042102 0.011437008 0.46790156 -0.5664712 -0.3918659 -0.29550797 -0.19950761
2MSg -0.08275925 0.32013923 0.09989308 2.029036 1.5392908 1.6823827 1.3343915 -0.38336915 -0.006042113 -0.930211 0.8014934 -1.0472597 0.35751408 0.058776487 -1.3332334 -0.10252566
altar 0.5078094 0.28820795 0.7151162 0.3961188 0.353003 -0.38030338 0.9042615 0.6515707 0.27592352 0.23487376 0.9103891 0.12497199 0.17217882 -0.20133284 -1.1838167 -0.14566652
Moses -0.37295845 0.55881786 0.6483854 0.052419994 0.70095986 0.9772123 2.099437 -1.4760352 -0.16506475 0.8272656 -0.0076880306 0.69628084 -0.069124445 0.9868778 -0.9766722 0.25805035
outside_camp -0.15880308 -0.3499784 0.40080896 -0.004445534 0.5536923 0.8355544 1.2394155 -0.707659 -0.030531894 0.6061851 -0.1553487 -0.01058493 -0.54870784 0.7269183 -0.22968504 -0.05993223
property -0.76322377 -0.732604 0.035650887 0.08599308 -0.68240285 0.67453223 2.5164015 -0.3140204 -0.3348661 -0.06425917 -1.3944502 -0.5298172 -0.73471516 0.05777806 -0.060973402 -0.93564767
camp -0.16034958 -1.0418634 -0.06381902 0.95390475 0.25751227 0.10839372 2.0335379 0.37754822 -0.62100494 0.1530565 -1.5355322 0.51979136 -0.22576858 1.3255887 -0.46525413 -0.53147036
Aaron's_sons -0.50217456 0.27592194 0.13531633 0.05371265 0.40818256 -0.8881731 1.3137975 0.070298165 0.4517357 0.3269661 0.84299654 -0.62417006 0.021798288 -0.97711426 -1.3838652 -1.0854464
land_of_enemies 0.89507735 -0.7083946 0.95996416 0.26286465 0.03344416 -0.42115545 0.50449085 -0.9565161 -0.5923559 -0.4305123 0.53366673 -0.82043874 -0.5907488 -0.14840096 -1.3139113 -0.11954444
sojourner 0.1402854 -0.27761996 -0.066977814 0.05516623 0.4197122 -0.20725775 0.6992338 0.24529725 -1.0579084 -0.36461055 0.2793883 0.8746798 -0.8776006 -0.35506362 -0.56801957 -1.2276754
entrance_tent_of_meeting 0.42542842 -0.9218877 -0.38435468 0.12911078 0.38384444 0.66235083 1.1869079 0.36681628 -0.37769184 0.34262362 -0.19802782 0.24200882 -1.1372602 -0.5470524 -0.12511323 0.0717693
field 0.7669104 -0.08041278 -0.21748501 1.5558228 0.94185585 0.81982446 0.79377466 -0.52443445 0.5048737 -0.24272344 0.48881808 -0.4805962 -0.16455938 -0.1659803 -0.8308807 -0.3200839
remnants 0.5196009 -1.0250244 0.052739087 0.31022313 0.65735346 -1.2703482 1.1398767 0.01705347 -0.19838947 0.016451491 1.1182891 -0.7392463 -0.7331485 0.2084255 -0.69421476 -0.48057744
holy_place 0.3412203 -0.17872627 0.48552004 -0.03311751 0.8631768 -0.69980294 1.841611 0.75802577 0.25544673 0.036293857 0.9896048 0.15337075 1.3118788 -0.953298 -1.3516028 -0.8957356
town 0.25051698 -0.13375932 0.81528145 0.83240134 0.011735357 0.21293026 0.4122466 -0.48856673 0.08169582 -0.17760994 0.7303392 0.024360877 -0.79594696 -0.37514216 -0.9092371 0.07052946
vineyard 0.68630403 -0.26557496 -0.5400677 2.729472 1.6739156 1.3632995 1.8535111 -0.51382864 0.48242268 -0.7479596 0.48343137 -0.8897222 0.5853636 -0.43713352 -0.9607539 -0.35390252
Egypt 0.21562873 -0.11083129 0.79960734 0.7539022 -0.090751804 0.07795721 0.46551067 -0.4417531 0.023502594 -0.15731567 0.6458263 -0.07185655 -0.9348855 -0.3162224 -0.93607235 0.06527012
golden_table -0.45946804 -0.8694105 1.1656605 0.12613279 0.55778044 1.5780162 2.3608174 -1.9756932 -0.23859492 1.3477653 0.25202876 0.22482973 -0.061983835 1.5849526 -1.1052791 -0.19584759
hut 0.2518193 -0.13963324 0.76087517 0.7453296 -0.045143034 0.08763653 0.46925288 -0.50663185 0.08578926 -0.056216046 0.72879636 0.05673932 -0.8762021 -0.32796815 -1.0112325 0.0690697
brother -1.7668414 -0.115907185 -0.51797986 0.7407005 -0.43987697 1.3236687 2.667347 -0.56090146 -0.60016507 -0.2313771 -1.4497364 -0.04815626 -0.57559913 -0.27658132 -0.871236 -1.1777894
blasphemer -0.4156302 0.016673882 0.45476264 0.85478985 0.93011975 -0.2638974 2.913383 0.6641939 -0.48699254 -0.39326006 -1.5620883 0.8626694 -0.61965066 1.2752749 -0.1958181 -0.100645415
daughter 0.13989407 -1.1839613 0.88633627 0.9824956 0.43353572 0.7191535 2.1873307 -0.8547767 -1.0919116 -0.76533306 -1.2258474 0.51968867 0.71874267 -0.47715467 0.3481212 -0.44490537
purchaser 0.09616656 -1.1608106 0.8991294 0.99218047 0.40368992 0.6738831 2.158115 -0.8578247 -1.0955126 -0.7422411 -1.2015256 0.40318325 0.71298385 -0.48493764 0.35328835 -0.43434045
lamp_stand -0.18875192 -0.4047729 0.794574 -0.108927466 0.0074708993 -0.06454508 1.4551862 1.139139 -0.08565509 0.42106935 0.42173976 0.29373908 0.8022523 -0.6312188 -1.266634 -1.5333902
sons_of_sojourners 0.02844501 -0.7871298 -0.202306 -0.0154145025 0.4790357 -0.67225873 0.91306007 0.15494458 -0.7813021 -0.14392453 1.1146826 -0.42684406 -0.23990169 -0.54258823 -1.0377201 -0.9093423
heavens -0.12456818 -0.51936144 1.1283538 1.0251873 -0.50424904 -0.77702385 0.9209993 -0.50766945 -0.04719318 -0.31475782 1.0193334 0.04693858 -0.5378723 -0.43051746 -0.87512726 0.20011298
foreign_nations -0.06588235 -0.85461843 -0.22693422 0.00023478527 0.4997401 -0.6603577 0.92991364 0.088883124 -0.7608062 -0.057527393 1.1351045 -0.3431808 -0.19067582 -0.71476734 -1.0290836 -0.8844871
curtain 0.011251464 -0.3718486 0.9475 -0.2581583 -0.017293563 0.10141252 1.5277253 1.1055598 0.05730266 0.4566211 0.367948 0.31434914 0.8121296 -0.67695963 -1.4105145 -1.4989148
incense_altar -0.19068034 -0.5449808 0.8654044 0.876243 -0.53268707 -0.85096055 0.9203561 -0.3451502 -0.017382337 -0.3522745 1.0092603 0.18814807 -0.4621538 -0.4516149 -0.8676945 0.13819492
Canaan -0.2110034 -0.600163 1.2136109 0.93028045 -0.52157676 -0.752744 0.83620834 -0.4295063 -0.15374075 -0.43589142 1.0204214 0.13823226 -0.46717632 -0.4403856 -0.8546384 0.19947188
high_place -0.17605144 -0.47268924 1.046426 0.8787434 -0.45326385 -0.82405055 0.94399196 -0.3324683 0.021839546 -0.448087 1.0489209 0.15880029 -0.42286494 -0.39499447 -0.7849499 0.14140598
mount_Sinai -0.16454199 -0.568708 1.0292774 0.9672708 -0.53831124 -0.7806795 0.97961247 -0.3414726 0.045196462 -0.37988234 1.0249133 0.190894 -0.58637124 -0.30537674 -0.7361337 0.2022928
Israelites'_sanctuaries -0.18253599 -0.53662235 1.0711325 0.8272333 -0.5826415 -0.75612396 1.0166651 -0.3221342 0.055652916 -0.3916099 1.0699359 0.18299575 -0.4317939 -0.36644393 -0.8244369 0.2536722
village 0.69107944 -0.08515368 0.17143932 0.19543292 0.693227 0.5638051 0.70593876 -0.27499318 0.16458164 0.1403547 0.57960993 -0.13665703 -1.0973115 -0.23218468 -1.1368588 -0.21522792
ground 0.6798387 -0.06895427 0.27941045 0.11632849 0.55602765 0.66212004 0.6518454 -0.56112427 0.28482574 0.017054798 0.4598314 -0.07926439 -1.1857454 -0.12447692 -1.0915661 -0.43125057
