87 16
Israelites -0.43879464 0.5961191 0.15286961 0.5223862 -0.5966262 0.28940415 0.3433703 0.20273854 -0.25392827 0.33393148 0.5476379 -0.43769753 -1.0887191 -0.34386948 -0.66440177 -0.14342779
YHWH -0.054856308 0.23996907 -0.49148864 -0.21310782 0.20783925 0.41832 0.87014526 -0.24077256 0.23799661 0.31612286 0.83711237 0.04220147 -0.23478489 -0.46080714 -0.9362154 0.7468874
sojourner 0.38555264 -0.44262695 0.42586768 0.95847064 0.13448702 -0.49298218 0.66730314 0.029873744 0.18358642 -0.55464464 -0.18824694 -0.25710076 -1.260635 -0.38336086 -0.16355997 0.94416445
2MSg -0.29476476 1.0634412 -0.46509475 1.2708902 -1.1921558 -1.192733 1.1397358 0.21669137 0.38753256 -0.6149092 -0.50500536 0.836854 0.21477167 0.13903359 0.6032212 0.5414683
land 0.38484034 0.8173521 -0.5016238 0.3652713 0.36148217 1.0655535 1.2099411 0.5319774 0.2733434 -0.21983448 0.38097376 -0.5694505 -0.5640643 -0.15841779 0.2399432 0.070068285
an_Israelite 0.4713399 -0.2572747 0.73170954 0.9447928 -0.48146045 0.33107913 0.66241854 -0.054563425 -0.4036394 0.53670335 -0.5582452 -0.17760217 -0.3178346 -0.09119417 0.30951387 1.0855182
brother -0.6692114 -0.39248428 0.320724 1.2480626 -0.6882974 0.71686435 -0.07976505 0.68905073 1.1152463 -0.68922436 -0.0491532 1.241368 -0.28176323 -0.53485566 0.2511338 0.506974
Aaron -0.8307712 0.44345677 0.4252484 1.1323324 0.9358975 0.4880358 0.3303201 -1.1264417 0.0276043 -0.9006401 0.42446795 -0.9062071 0.53857476 -0.53334236 -0.59010845 0.9809769
handmaid -0.60347 0.2959642 1.1616591 0.8470802 -0.5234235 -0.09674256 1.6058974 -0.5224554 0.42028683 0.91688275 0.52722305 0.96284723 0.31015176 -0.542663 -1.1129063 -0.7089222
widowed/expelled/defiled_woman -0.19929034 1.4227153 1.3492377 0.67489463 0.2395609 2.2871287 2.0563564 -0.61667144 -0.24043797 -0.03294163 1.2643207 1.1986091 0.5610445 1.9233314 -0.39947653 0.5385898
Aaron's_sons -1.3777981 0.09618096 -0.2144593 0.012819347 -0.24085605 0.14838667 0.77091235 -1.004643 0.73207605 0.043211382 -0.3872888 -0.0074802577 -0.34786284 0.34902835 -0.686388 0.12608777
foreign_nations -0.42573038 0.29861134 -0.35822007 0.2716799 0.5663818 0.08474825 0.87886214 -0.33500996 0.4434375 0.14734659 0.56325465 -0.55727696 -0.911163 -0.30933595 0.47223455 0.30081442
house -0.41629925 0.1661921 1.088828 1.1879624 -1.1770388 0.2721535 2.8897753 -0.71813154 1.0167345 2.21175 -1.3585614 0.7287768 0.9987724 0.25863215 -1.144123 1.3600296
idols 0.09139225 0.3957925 -0.028506372 0.75267607 0.16258645 0.10548125 0.6894068 -0.34615782 0.08080713 0.6365136 -0.2906799 0.59835464 -0.53330564 -1.289904 0.023796037 -0.601166
property -0.28668723 -1.1953124 1.4278955 0.28506622 -1.4387083 -0.6768446 2.271358 -0.5142365 0.7572344 0.3149457 0.49415448 0.97359496 0.5620106 -1.7627183 -0.57439065 0.28943244
tent_of_meeting -0.2788873 -0.94869757 0.8351854 0.46037665 0.6857233 -0.0151593285 1.9284397 0.69710743 -0.09416312 -0.07760265 0.72936463 0.14201902 0.35186052 -0.12689552 -0.37348008 0.1566739
remnants -0.9255585 -0.119473 -0.7495336 0.15226585 -0.19273585 0.05654559 1.2106749 -0.18619846 0.036146577 -0.24159303 1.0517094 -1.0346465 -0.1930995 -0.8969251 0.263142 0.48452553
father -0.14206667 -0.4215703 1.3092633 0.8752534 0.71943164 -0.27890888 1.7204292 0.70947677 -0.13022994 -0.1433522 0.7079769 0.7118762 0.43425483 0.01492347 -0.764217 -0.35854828
mother -0.16640982 -0.4787918 1.350014 0.8911977 0.7085984 -0.27357504 1.7524744 0.74695134 -0.12623413 -0.14318512 0.6654756 0.6557045 0.40549043 0.009514089 -0.7884806 -0.3569746
clan -0.014890936 -0.509768 1.4548897 0.67134386 -1.2955341 -0.6407879 2.2038043 -0.46314326 1.252102 -0.19598979 0.7630986 1.0421432 0.34636807 -1.8140866 -0.6351159 -0.17815915
altar -0.42006424 0.009437283 1.161835 0.4300585 0.47717932 0.24998417 1.9017832 -0.07084841 -0.065300904 0.2555202 1.6755883 0.18302238 -0.28112242 1.395961 0.13216802 -0.17124727
blasphemer -1.108106 0.252622 -0.87978476 1.2167306 -0.002931188 1.4531949 0.8130383 -0.39740282 -0.39635873 0.54963076 0.012187668 -0.7345212 -0.28806165 -0.29533216 0.64771384 0.13678345
woman_in_menstruation -0.028815106 -0.93533427 0.56821394 0.38084352 1.2207345 -0.53285867 2.2590048 0.89035475 0.36694786 0.106989786 0.76976514 0.7137685 0.8175233 -0.6658235 -0.69956076 1.7826244
Moses -0.36741832 -0.17478584 0.5164972 0.1855713 -0.37280115 1.1909666 0.49225035 -1.0113235 -0.40699577 0.26557508 0.8907632 0.083828345 -0.5532572 -0.3559364 0.513276 0.09383519
father's_wife -0.24648003 -0.5638489 0.6189978 0.65346074 0.26928493 -0.26228347 1.8364946 0.9950702 0.3466796 0.52454144 0.17159984 0.6389835 0.16394837 -0.5085943 -0.64605695 -0.31372365
daughter-in-law -0.29167336 -0.5606347 0.5980475 0.6901093 0.327664 -0.33140904 1.8740776 1.0252521 0.4070676 0.50950134 0.14880204 0.6791592 0.16140854 -0.5068073 -0.6535417 -0.29570132
fellow's_wife -0.4085357 0.83855116 0.34344736 0.7348293 0.069149494 -0.5667069 0.26604512 0.74826777 0.6628264 0.298031 0.0213553 0.9728627 -0.22613418 0.017347658 -0.12837902 0.49190578
sister -0.48825014 -0.3163151 0.3097022 0.64215255 -0.23859194 0.45454785 0.5758802 0.8267902 -0.4510886 -0.27919534 -0.7988661 0.36454412 -0.12685221 -0.93060523 -0.41012353 0.24368879
aunt-in-law -0.31722406 -0.5782026 0.6160575 0.65136445 0.3002846 -0.25615805 1.8814907 0.9919701 0.43287104 0.528706 0.15681785 0.67395705 0.1742817 -0.54328215 -0.6417214 -0.34433973
camp -2.3512034 -1.1533694 1.3162667 1.0220807 0.18594906 1.4293782 1.6012286 0.30032727 0.2981242 2.9628036 0.4971233 0.32661024 0.112501785 -0.6715663 -0.49476594 0.8741152
offspring 0.122146904 -0.68456614 1.2359631 0.69140697 1.11543 -0.17965692 2.0105865 0.89290744 -0.40666556 -0.5853289 -0.0044318778 0.9058998 0.083057 -0.13659474 -1.1416789 0.55414665
outside_camp -1.4793222 0.17363113 0.44882187 1.2935671 0.42144093 0.37053314 1.7225049 0.1881416 -0.4604027 1.771287 0.41951153 -0.40482888 0.7099257 0.023650728 -0.51365006 -0.16237345
corpse -0.4809855 -0.34649542 0.7116235 -0.12585498 0.5988088 0.8862035 2.0855215 0.14214998 -0.24298444 -0.029425386 1.219931 0.57179636 -0.35085556 1.7666998 -0.21052334 0.9807672
entrance_tent_of_meeting -0.3747629 -0.59337974 0.47434694 0.6683805 0.22381738 -0.19587126 1.6309052 0.8480033 0.5183884 0.69037133 0.6647753 0.37253115 0.59007967 -1.0035362 -0.46585748 -0.24951695
woman_and_her_mother -0.41098872 -0.61555 0.4739864 0.7572262 0.19137393 -0.22165534 1.6016567 0.87149227 0.5646333 0.7128245 0.66787153 0.29554242 0.58285177 -1.0002184 -0.4471713 -0.2018358
human_being 0.0031019307 0.3868663 0.4579957 0.52516484 0.9051999 0.089153215 0.4520463 -0.79396445 -0.83817947 -0.96837133 0.77408487 0.729628 0.4814727 -1.1539642 -0.30738512 0.90795785
slave -0.35849413 0.03809246 2.2694688 1.0702561 0.59921634 -0.30469573 1.9654315 -0.36332548 -0.1693799 -0.86321074 1.6153892 0.909487 -0.5940194 0.79883456 -0.9882251 -1.6924822
male 0.059443243 -0.69394016 0.318803 0.38894776 0.6723579 -0.55139965 2.5401998 1.478068 0.2826231 0.32908833 -0.58741546 1.0507885 -0.12280195 -0.7516111 -0.96746176 0.75083905
hut -0.72502595 -0.6944151 1.0232507 0.46267122 0.4982472 0.11887733 2.8070846 0.35613468 -0.125471 0.638613 0.96861446 -0.5633574 -0.73328185 0.37574685 0.088965274 -0.5305879
town -0.82976025 -0.58096963 0.94713527 0.49920228 0.50135976 0.15143235 2.6901648 0.42447114 -0.1074484 0.65488446 0.9919033 -0.62739354 -0.7237409 0.42103377 0.072962396 -0.4955839
holy_place -0.8421325 0.6702436 2.0067747 0.3090988 0.20825553 1.3752791 2.680024 -0.16122507 -0.7934266 0.16281527 1.7434686 1.0423257 0.5693491 2.6502426 -0.37856507 0.09821383
kinsmen -0.5516779 0.07307449 0.7832059 -0.33517253 0.0072624935 1.1387985 1.010454 0.75827724 -0.9514183 -0.6150909 -1.0087202 -0.42236805 -0.29025096 -0.5622934 -0.48351878 0.88101184
aunt -0.5164187 -0.05386832 1.456559 0.7841854 -0.20062555 -0.17950629 1.9450577 -0.36732993 0.4519763 -0.08430989 1.0083175 0.88539726 -1.132379 0.14948876 -0.7860006 -1.9636223
field -0.5122083 -0.08046439 1.4151318 0.8400653 -0.21093504 -0.17606103 1.8661242 -0.30723596 0.43037084 -0.107204705 0.9501346 0.8267399 -1.1211904 0.15025829 -0.7697308 -1.8961776
granddaughter -0.50094044 -0.031083167 1.3923988 0.77131784 -0.15284899 -0.19850755 1.938577 -0.37749514 0.4773623 -0.11244116 0.9600307 0.8755444 -1.1831691 0.12992828 -0.84820986 -1.9290634
custody -0.80317825 -1.298422 1.336316 2.7153757 -2.1202846 5.692614 3.7336857 -1.7115837 0.82952714 0.04553957 0.12772062 0.8827666 -0.06965757 -1.0472053 -1.3276515 0.096071064
golden_table -2.8286502 0.94309 0.5342916 1.7434874 0.67339647 1.5725843 2.7329311 -1.050164 -1.1224186 1.2900399 1.003857 -1.0406142 -0.80686736 1.1171502 -0.60909796 -0.35279137
relative -1.2383252 0.826863 1.0922213 -0.022699177 -0.64711565 1.5294818 2.8894756 -0.68912166 -0.42972964 1.4535843 0.9786727 1.1601518 -0.57915336 2.3926625 -0.16591997 -0.35088187
sons_of_sojourners -1.3046446 0.06977765 -0.8342055 0.45751765 0.34265998 -0.19146596 0.7388411 0.517539 -0.29048592 -0.6548543 0.5808553 -0.15687495 -1.1636354 -1.0933557 0.49255657 -0.021306423
children -0.8185363 0.2798677 1.2045014 1.3152645 0.3324863 0.0073480112 2.0549302 -0.05634521 0.2440929 0.7256577 2.1148663 -0.08823057 -0.43151715 -0.106761016 -0.10444351 -1.5863084
ground -0.8321195 0.27865997 1.2559121 1.298496 0.32749385 -0.030713694 2.000298 -0.11647278 0.24996434 0.71309793 2.0821142 -0.15370257 -0.4590354 -0.034264717 -0.15175994 -1.57833
village -0.77797943 0.29243964 1.2803069 1.2311242 0.31671354 -0.08015206 2.045705 -0.11129741 0.2541619 0.74092364 2.163319 -0.066217996 -0.4038284 -0.008856269 -0.08587349 -1.570121
man/woman -0.8143435 0.3180722 1.315397 1.2685286 0.33092782 -0.051237594 2.089025 -0.10355092 0.15859099 0.7488415 2.087004 -0.10505876 -0.5013754 -0.080497056 -0.08344054 -1.6018827
mount_Sinai -0.68841565 -1.7519575 0.27816868 -0.74475896 0.7425485 0.814433 3.1994712 0.69524956 0.015378406 0.05882096 -0.012189732 -0.1468704 -1.2088505 0.40959656 -0.48060822 1.0542396
high_place -0.706478 -1.7188914 0.25930348 -0.68539804 0.6897517 0.8568793 3.1631567 0.6752171 -0.08773925 0.07617486 0.019247105 -0.1484553 -1.2321919 0.46904 -0.514775 1.0584844
Canaan -0.68120944 -1.7007183 0.20060351 -0.7697056 0.665226 0.8324663 3.257221 0.60784024 0.00026855388 0.044449013 -0.020752646 -0.19037797 -1.269922 0.43065786 -0.48568675 1.0585556
Israelites'_sanctuaries -0.6480511 -1.7366183 0.27442887 -0.7284519 0.6856263 0.8313598 3.2277188 0.7225566 -0.0032265433 0.09255236 -0.011817835 -0.20512852 -1.1762909 0.4267193 -0.4631235 1.049825
incense_altar -0.6530882 -1.7394904 0.27047116 -0.7125707 0.7113499 0.8596648 3.2247126 0.7126744 -0.09595205 0.07331955 -0.037908077 -0.09064527 -1.2663478 0.5080666 -0.44457185 1.1001105
group_of_people -0.9726498 0.94784266 1.0692556 -0.14239699 -0.13992822 0.587934 0.6816759 0.7768716 -0.5371384 0.1576468 -0.70601356 -1.0866809 -0.020140985 -0.7607029 0.17901707 -0.05631304
land_of_enemies -0.4495351 1.1407778 -0.04478765 -0.46055308 0.73270005 -0.11253325 1.2340525 -0.288065 -0.11110958 0.5712202 -0.036003474 -0.60997 -0.7716717 -0.73183364 0.37502435 0.2729716
Egypt -0.46858004 0.8508655 0.45487794 -0.077576175 0.4719553 0.5002435 0.7561936 -0.5516723 0.24119382 0.3782081 -0.42683488 -0.40217632 -0.65817994 -0.72332686 0.5617305 -0.34987602
2MPl -0.732093 -1.6928833 0.2858903 -0.67614573 0.6986911 0.8457284 3.1223555 0.7537838 -0.08002115 0.03403759 0.08030131 -0.17984988 -1.2400429 0.59581846 -0.5094173 1.171052
heavens -0.71957225 -1.7342609 0.25254107 -0.74068916 0.6412716 0.886911 3.238714 0.7492895 -0.027690437 0.09747695 -0.021861205 -0.17330977 -1.220238 0.50223494 -0.46397424 1.0973959
curtain -1.291269 0.47959673 1.3706431 0.55471975 1.5635762 2.22951 2.2415304 -0.4154345 -1.6848382 -1.3024424 0.8183396 0.27434993 0.21238655 0.46311784 -1.0698911 1.1263647
lamp_stand -1.228038 0.52261674 1.4942905 0.5551312 1.5870752 2.2817361 2.220606 -0.4522753 -1.711209 -1.2253225 0.7457343 0.41284242 0.35269767 0.51749784 -1.0883142 1.2462891
virgin -1.3431305 0.54455525 1.4487512 0.4900705 1.6278124 2.3477337 2.249141 -0.4005901 -1.6379038 -1.3059111 0.9098819 0.2915306 0.33284232 0.40291443 -1.0629321 1.1696657
purchaser -1.0187227 -0.1151806 1.0008986 0.38675335 -1.1035205 0.22444741 0.52119476 -0.0461428 -1.1964897 0.25347894 -1.0137007 0.06763925 -0.037793826 -0.7092733 -0.41147298 1.3614684
poor -0.739146 0.9317603 1.2645291 0.59166074 -0.6203731 -0.33435392 2.3807487 -0.47035384 0.87549806 -1.662108 -1.0304501 2.487026 -0.75562763 -0.30749378 -0.8270832 -0.2212276
vineyard -0.7458011 0.8993748 1.2836032 0.6229651 -0.6280924 -0.4220476 2.3450782 -0.32504022 0.7369777 -1.7492546 -1.0791004 2.5454872 -0.7272143 -0.35988364 -0.7097454 -0.0442778
blind -0.6429081 0.8723645 1.260382 0.50439245 -0.6359059 -0.35607225 2.4854512 -0.4319454 0.8564312 -1.6469293 -1.1041061 2.4302506 -0.85991114 -0.38954705 -0.7934744 -0.1295293
granddaughter_of_woman -0.7259146 0.82322204 1.308178 0.5550859 -0.5632466 -0.34922972 2.406549 -0.42187798 0.8046997 -1.6459684 -1.0556118 2.5445395 -0.78958064 -0.31051624 -0.7828661 -0.11910778
hireling -0.6832774 0.8838694 1.2389795 0.5501904 -0.6500983 -0.3620959 2.4515254 -0.3687466 0.78832954 -1.6862307 -1.0178571 2.5358145 -0.80340207 -0.34257072 -0.77784985 -0.06268352
rich -0.66979104 0.9566021 1.2692695 0.63792574 -0.66925335 -0.36651495 2.4114234 -0.33355558 0.80633664 -1.6775994 -1.0333177 2.5303693 -0.74109936 -0.32003486 -0.8568847 -0.052771714
sister_of_woman -0.673162 0.87481755 1.2349964 0.5947994 -0.66022253 -0.35164633 2.457796 -0.29582587 0.86663896 -1.7012837 -1.0377452 2.5040061 -0.8321393 -0.29206273 -0.75665885 -0.072603755
woman_and_her_daughter -0.69740623 0.9259094 1.2492831 0.52230823 -0.76704973 -0.2611168 2.35759 -0.38583368 0.8267878 -1.6698519 -1.0577215 2.506595 -0.82880765 -0.32630917 -0.9441493 -0.030944081
deaf -0.64348435 0.86752534 1.2934204 0.6337426 -0.6121239 -0.32747176 2.3966608 -0.26797557 0.8256972 -1.6994771 -1.0411485 2.4878643 -0.8120455 -0.27976725 -0.7542403 -0.050043598
woman -0.6204154 0.93742424 1.2255917 0.5667034 -0.6230109 -0.33283085 2.380128 -0.3713222 0.83595204 -1.6277969 -1.0448353 2.5068815 -0.74453354 -0.36133456 -0.80537474 -0.07479099
elderly -0.7547517 0.95759124 1.2463412 0.5465292 -0.6333099 -0.36407432 2.3477266 -0.3178407 0.8605749 -1.6857773 -1.0232234 2.5458589 -0.76421744 -0.33063546 -0.7769533 -0.14324191
daughter -1.0747313 0.43660408 -0.42115137 -1.0928183 -1.0334167 -0.43770385 1.1439122 -0.7785275 -0.56521827 0.20841774 0.15167291 2.0643277 -0.71736443 -0.5789487 0.5943991 0.6647637
brother's_uncle 0.17825173 1.6061131 1.7829274 -0.16999725 -1.150531 0.20453632 0.88719887 0.9584369 1.5904771 -1.4168069 -0.2576698 -0.01189626 -0.28191113 -0.8278224 1.0932463 1.3121045
husband -5.66427 1.8597841 0.5042116 3.4016132 -2.5875509 1.0242324 3.1237302 -2.4871426 1.043051 0.02339896 3.7194066 1.208005 5.5356407 -0.7497064 2.0478249 1.1441483
man 0.22470675 6.2474 1.4309089 3.7205117 -4.0535703 5.11751 1.0269209 -1.0741099 -1.2397679 2.90686 -2.2747352 1.6288718 -1.9010857 0.072540574 -3.7816112 3.0132084
son_of_brother -0.93182915 1.8322935 0.84867424 0.10311627 -0.08174886 -0.84037703 0.28782812 0.6440093 0.7620936 -0.0015628738 -0.30885914 0.7509866 -0.51946557 0.41865847 0.6539923 1.400172
lay-person -0.6556448 0.5292441 -0.72642523 0.7303702 -0.0073510506 0.10555035 1.0360489 -0.7617981 -1.787635 -0.5894503 1.0528408 -0.71305054 0.55299443 -0.8934149 0.8299674 1.100133
witnesses -1.7966992 0.94588923 0.3936472 0.46037588 1.1787659 1.5387635 -0.12702459 -0.5194006 -0.9976752 1.3577538 0.5447392 0.36882383 -0.9871584 -0.34433088 1.001971 1.150597
brother's_brother 0.15488595 1.5964108 1.7819216 -0.11416294 -1.1909044 0.156888 0.8545417 1.0276254 1.5875052 -1.4208549 -0.23596598 -0.04304285 -0.3171219 -0.8846448 1.0652777 1.3576956
no-one -0.53677213 0.8666821 0.26706326 0.005340879 0.4943061 0.40526474 0.63667727 -0.48103246 0.14701204 0.42269602 -0.558238 0.13537538 -0.8526483 -1.1578158 0.668735 -0.43157053
